Language model created by QuickLM on Sat Apr  1 22:54:25 EDT 2017
Copyright (c) 1996-2010 Carnegie Mellon University and Alexander I. Rudnicky

The model is in standard ARPA format, designed by Doug Paul while he was at MITRE.

The code that was used to produce this language model is available in Open Source.
Please visit http://www.speech.cs.cmu.edu/tools/ for more information

The (fixed) discount mass is 0.5. The backoffs are computed using the ratio method.
This model based on a corpus of 14 sentences and 16 words

\data\
ngram 1=16
ngram 2=28
ngram 3=14

\1-grams:
-0.7782 </s> -0.3010
-0.7782 <s> -0.2218
-1.9243 打开厨房灯 -0.2218
-1.9243 打开灯 -0.2218
-1.9243 打开客厅空调 -0.2218
-1.9243 打开卧室调光灯 -0.2218
-1.9243 打开卧室风扇 -0.2218
-1.9243 打开洗手间灯 -0.2218
-1.9243 关闭厨房灯 -0.2218
-1.9243 关闭灯 -0.2218
-1.9243 关闭客厅空调 -0.2218
-1.9243 关闭卧室调光灯 -0.2218
-1.9243 关闭卧室风扇 -0.2218
-1.9243 关闭洗手间灯 -0.2218
-1.9243 关灯 -0.2218
-1.9243 开灯 -0.2218

\2-grams:
-1.4472 <s> 打开厨房灯 0.0000
-1.4472 <s> 打开灯 0.0000
-1.4472 <s> 打开客厅空调 0.0000
-1.4472 <s> 打开卧室调光灯 0.0000
-1.4472 <s> 打开卧室风扇 0.0000
-1.4472 <s> 打开洗手间灯 0.0000
-1.4472 <s> 关闭厨房灯 0.0000
-1.4472 <s> 关闭灯 0.0000
-1.4472 <s> 关闭客厅空调 0.0000
-1.4472 <s> 关闭卧室调光灯 0.0000
-1.4472 <s> 关闭卧室风扇 0.0000
-1.4472 <s> 关闭洗手间灯 0.0000
-1.4472 <s> 关灯 0.0000
-1.4472 <s> 开灯 0.0000
-0.3010 打开厨房灯 </s> -0.3010
-0.3010 打开灯 </s> -0.3010
-0.3010 打开客厅空调 </s> -0.3010
-0.3010 打开卧室调光灯 </s> -0.3010
-0.3010 打开卧室风扇 </s> -0.3010
-0.3010 打开洗手间灯 </s> -0.3010
-0.3010 关闭厨房灯 </s> -0.3010
-0.3010 关闭灯 </s> -0.3010
-0.3010 关闭客厅空调 </s> -0.3010
-0.3010 关闭卧室调光灯 </s> -0.3010
-0.3010 关闭卧室风扇 </s> -0.3010
-0.3010 关闭洗手间灯 </s> -0.3010
-0.3010 关灯 </s> -0.3010
-0.3010 开灯 </s> -0.3010

\3-grams:
-0.3010 <s> 打开厨房灯 </s>
-0.3010 <s> 打开灯 </s>
-0.3010 <s> 打开客厅空调 </s>
-0.3010 <s> 打开卧室调光灯 </s>
-0.3010 <s> 打开卧室风扇 </s>
-0.3010 <s> 打开洗手间灯 </s>
-0.3010 <s> 关闭厨房灯 </s>
-0.3010 <s> 关闭灯 </s>
-0.3010 <s> 关闭客厅空调 </s>
-0.3010 <s> 关闭卧室调光灯 </s>
-0.3010 <s> 关闭卧室风扇 </s>
-0.3010 <s> 关闭洗手间灯 </s>
-0.3010 <s> 关灯 </s>
-0.3010 <s> 开灯 </s>

\end\